0,0,0,0,0,0,0,0,0,0,0,0,0,0,0,0,0,0,0,0,0,0,0,0,0,0,0,0,0,0,0,0,0,0,0,0,0,0,0,-0.000137923,-0.000272611,-0.000112062,0.000292527,-0.000645338,-0.00295302,-0.00143523,0,0,0,0,0,0,0,0,0,0,0,0,0,-4.80828e-06,-1.65806e-06,0,-2.62627e-05,-4.42933e-05,-9.16918e-06,0,2.43562e-05,2.57198e-05,0.00122852,0.00645871,0.00404397,0.00477785,0.00348993,0.00443929,0.00127256,0.000597366,0.000145216,0,0,0,0,0,0,0,0,0,4.19469e-06,-1.29288e-05,-8.48493e-06,-2.23378e-05,-1.72346e-05,-7.49852e-05,5.6581e-05,0.00100245,0.00070789,0.00136855,0.00566969,0.0128466,0.0176946,0.0177298,0.0168464,0.0114568,0.00469023,0.00208262,0.00154047,0.000577283,-0.000403507,-8.65634e-05,-7.9922e-05,-2.28797e-05,0,0,0,0,1.4382e-05,-1.57408e-05,0.000134108,0.00108376,0.000630877,0.000322522,0.00400485,0.00780422,0.00776529,0.0109452,0.0256897,0.0372362,0.0326968,0.0191636,0.00787024,0.00230126,-0.00274515,0.011651,0.0266223,0.0226905,0.0131731,0.007149,0.00173598,-2.81889e-05,0,0,0,0,2.21767e-05,5.8987e-05,0.000306155,0.00317106,0.00285724,0.00203552,0.00611193,0.0081493,0.00192371,0.00258873,0.0212685,0.0325719,0.0183232,-0.00712053,-0.0300003,-0.0420872,-0.0294332,0.00723213,0.0357377,0.0348874,0.0217478,0.0153799,0.00598448,6.70655e-05,1.02133e-05,0,0,0,5.04478e-06,0.000228219,0.000318433,0.00143621,0.00357513,0.00547729,0.00195341,-0.00882311,-0.020576,-0.0222761,-0.00300884,0.00673761,-0.00144546,-0.0231194,-0.0618248,-0.0733281,-0.0511178,-0.0157502,0.00966222,0.00689654,-0.00283723,0.00179873,0.00397266,-6.91268e-05,-3.25506e-05,-2.85504e-05,0,0,2.31099e-05,-8.1392e-06,0.00198711,0.00163333,0.00263117,0.00438142,-0.0132953,-0.0363593,-0.0537014,-0.0559514,-0.0312531,-0.00690203,-0.00252876,-0.0150348,-0.0492247,-0.0744329,-0.0692785,-0.0483787,-0.0362645,-0.0359059,-0.0331589,-0.0203047,-0.0059141,-0.00131167,7.70423e-06,-6.02298e-05,-0.000216273,0,-1.11135e-05,-1.8812e-05,0.00179565,0.000405099,-0.00158508,-0.00711228,-0.0278081,-0.0570516,-0.0731038,-0.0675941,-0.0424263,-0.0104878,0.0207931,0.0244926,-0.0153972,-0.0468181,-0.0615122,-0.0753087,-0.0854991,-0.0797861,-0.0633292,-0.0350135,-0.00862935,-0.000335079,0,0,0,2.44535e-05,-2.41579e-05,-4.64674e-05,0.00196044,-0.00190378,-0.0129824,-0.0221852,-0.0418559,-0.0653891,-0.0808979,-0.0774218,-0.0614761,-0.0100588,0.0604762,0.0920346,0.0579907,0.00535757,-0.0470324,-0.0935305,-0.118001,-0.114504,-0.0884004,-0.0489611,-0.0128508,-0.000412633,1.60531e-05,0,0,4.01522e-05,-0.000103019,-0.000128038,0.00151489,-0.00815708,-0.0261146,-0.0472582,-0.065054,-0.0797465,-0.0910943,-0.099203,-0.0814386,-0.00296292,0.120916,0.18962,0.135524,0.0386221,-0.0500304,-0.109208,-0.143327,-0.133613,-0.108867,-0.0622349,-0.0169019,-0.000374753,2.61692e-05,3.49168e-06,0,-9.25532e-05,6.06825e-06,-0.000233028,0.000486116,-0.0156878,-0.041504,-0.0675009,-0.0875571,-0.0998198,-0.115051,-0.13224,-0.100354,0.0301221,0.225107,0.291694,0.188188,0.0400093,-0.0695516,-0.133002,-0.146925,-0.140409,-0.12034,-0.0721133,-0.0232147,-0.000576066,-7.88111e-06,1.30475e-05,0,-9.82298e-06,-7.14665e-06,-0.000213827,-0.00246173,-0.0257684,-0.0573675,-0.0811014,-0.10098,-0.11903,-0.14236,-0.159633,-0.106798,0.101536,0.349974,0.365734,0.194407,0.00778344,-0.10567,-0.14895,-0.143652,-0.138038,-0.120657,-0.0805056,-0.0296592,-0.00119095,-1.51167e-05,1.63933e-05,6.89863e-06,-3.86779e-05,-3.49226e-05,-0.000315946,-0.00704769,-0.0377957,-0.0725126,-0.10083,-0.119241,-0.141589,-0.170342,-0.170893,-0.0738403,0.217259,0.441476,0.392219,0.160347,-0.0345531,-0.138388,-0.150494,-0.135329,-0.134682,-0.11734,-0.0814893,-0.0338716,-0.00205479,1.93994e-06,0,0,0,4.5466e-06,9.73092e-06,-0.0095868,-0.0501149,-0.0906785,-0.120353,-0.132531,-0.156566,-0.18679,-0.15525,-0.001382,0.312121,0.485252,0.367685,0.0989842,-0.0795129,-0.156278,-0.149176,-0.13781,-0.128897,-0.106603,-0.0777523,-0.0349642,-0.00284803,3.77343e-06,0,0,0,3.83402e-05,0.000129556,-0.0151487,-0.0635963,-0.103255,-0.131939,-0.14885,-0.176504,-0.180143,-0.0978971,0.0952429,0.369982,0.478788,0.297871,0.0321776,-0.115261,-0.157834,-0.1504,-0.137122,-0.1168,-0.0966883,-0.0708894,-0.031373,-0.00255951,1.50934e-06,0,0,7.16142e-06,5.82136e-05,-0.00030708,-0.0201406,-0.0734789,-0.11335,-0.143628,-0.166487,-0.179932,-0.140013,-0.0188648,0.166751,0.368232,0.403111,0.214074,-0.0109613,-0.133218,-0.154516,-0.149272,-0.130775,-0.105381,-0.085417,-0.0590409,-0.0218703,-0.000868811,4.08293e-05,-1.93463e-05,0,2.46936e-05,8.67529e-06,-0.000507593,-0.0249464,-0.0796085,-0.119994,-0.152713,-0.171393,-0.157848,-0.0878716,0.0430448,0.192234,0.311373,0.29827,0.14378,-0.0394601,-0.139134,-0.150094,-0.137973,-0.117427,-0.0896637,-0.0694966,-0.0416678,-0.0120506,0.00226575,6.74375e-05,-0.000165279,4.22216e-07,4.05482e-06,9.85824e-07,-0.000606848,-0.0273769,-0.0788679,-0.119752,-0.150749,-0.162155,-0.125047,-0.0483591,0.0598294,0.164524,0.222625,0.19486,0.0773926,-0.0591613,-0.132011,-0.131332,-0.117386,-0.0864151,-0.06551,-0.0487176,-0.0251215,-0.0034054,0.00335927,9.85843e-05,4.91929e-05,2.11106e-06,-0.000301959,-0.000303991,-0.00104057,-0.025486,-0.0740784,-0.107269,-0.129241,-0.134533,-0.0947545,-0.0276728,0.0471774,0.102208,0.134948,0.111761,0.038745,-0.0499655,-0.0970604,-0.0959306,-0.077215,-0.0552352,-0.0405074,-0.0250555,-0.00705786,0.00380715,0.00368676,6.09503e-05,3.78815e-05,0,-0.000789778,-0.000547801,-0.000778617,-0.0188458,-0.052175,-0.0709481,-0.0916869,-0.0906711,-0.0659564,-0.0296023,0.0101952,0.0387567,0.0575618,0.0598996,0.0208109,-0.0270546,-0.0486314,-0.0424267,-0.0304935,-0.0202174,-0.0165915,-0.0039024,0.00586647,0.00747185,0.00309568,3.58744e-05,1.35549e-05,3.86132e-06,1.20666e-06,-5.81331e-05,0.00118118,-0.00204297,-0.00953559,-0.0172821,-0.0315042,-0.0359688,-0.0421458,-0.0489154,-0.0463672,-0.0297629,-0.00601027,0.0167516,0.00934773,-0.0069639,-0.0155933,-0.0119579,-0.00426839,0.00703544,0.00945972,0.00407316,0.00558314,0.00744071,0.00360288,-0.000193076,-3.38725e-06,3.74068e-06,1.20666e-06,5.05418e-05,0.000826647,0.00941022,0.015204,0.00961917,0.00399099,-0.000961611,-0.0205822,-0.0563107,-0.0872111,-0.0917665,-0.0644157,-0.0205249,0.000711711,0.00229206,0.00109052,0.00139815,0.00274236,0.0123152,0.0108335,0.00232347,0.00158024,0.00180006,0.00162976,-4.2975e-06,-6.25338e-06,0,0,0,5.0811e-06,0.00464897,0.0124121,0.0174396,0.0157464,0.0131086,0.000565722,-0.0393497,-0.0771215,-0.0806648,-0.053804,-0.0147604,0.0143751,0.0192308,0.00868788,0.00170906,0.00650043,0.00866068,0.004004,0.000793527,-8.04274e-05,-1.13204e-05,2.40873e-05,4.93499e-05,0,0,0,0,5.66855e-07,0.000716382,0.00471092,0.00826033,0.00954165,0.00920828,0.00801895,-0.000166547,-0.0135527,-0.0228667,-0.0155612,-0.00307855,0.00715286,0.00624348,0.00374385,0.00294534,0.00330124,0.00198498,0.00185518,0.000539913,1.53871e-05,-7.92392e-06,2.82496e-05,5.56881e-06,0,0,0,0,0,0,7.23743e-05,0.000193849,0.000513256,0.00114446,0.000649356,0.000168108,-0.00106596,0.0033675,0.00332881,0.00366726,0.00328494,0.000665214,-9.87277e-06,-1.65184e-05,0,0,0,0,0,0,0,0,0,0,0,0,0,0,0,0,0,0,0,4.84167e-05,2.74796e-05,0,0,0.000342864,0.00102322,0.000342864,0,0,0,0,0,0,0,0,0,0,0,0,0,0,0,0,0,0,0,0,0,0,0,0,0,0,0,0,0,0,0,0,0,0,0,0,0,0,0
