0,0,0,0,0,0,0,0,0,0,0,0,0,0,0,0,0,0,0,0,0,0,0,0,0,0,0,0,0,0,0,0,0,0,0,0,0,0,0,-0.000133863,-0.000264587,-0.000108763,0.000278028,-0.000565604,-0.00267741,-0.00130265,0,0,0,0,0,0,0,0,0,0,0,0,0,-4.77089e-06,-1.64517e-06,0,-2.57199e-05,-4.37759e-05,-9.08035e-06,0,2.37969e-05,2.16786e-05,0.00111916,0.00581627,0.00374835,0.00446963,0.00318833,0.00392463,0.00113315,0.000555101,0.000135126,0,0,0,0,0,0,0,0,0,4.16407e-06,-1.28277e-05,-8.44388e-06,-2.22164e-05,-1.71585e-05,-7.33684e-05,2.64856e-05,0.000913264,0.000645558,0.00121105,0.00510365,0.0116547,0.0160852,0.0161616,0.0150798,0.0100033,0.00404262,0.00178873,0.0013136,0.00046766,-0.000392481,-8.67673e-05,-7.83575e-05,-2.24318e-05,0,0,0,0,1.4277e-05,-1.56823e-05,0.000126063,0.00101164,0.000589143,0.000289374,0.00354783,0.0069567,0.00713429,0.0101965,0.0241851,0.035146,0.0308703,0.0176109,0.0066802,0.00162522,-0.00219476,0.0114156,0.0251599,0.0213891,0.0123052,0.00663288,0.00162146,-2.804e-05,0,0,0,0,2.16739e-05,5.60399e-05,0.000287262,0.00293159,0.00261235,0.00180199,0.00525092,0.00683735,0.00112348,0.00182667,0.0195825,0.0305056,0.0174258,-0.00693202,-0.0291972,-0.0404811,-0.0277297,0.00686168,0.0334003,0.0324303,0.0201483,0.0141648,0.00550261,6.18156e-05,1.00485e-05,0,0,0,4.92277e-06,0.000219263,0.000293801,0.00128881,0.0031452,0.0045784,0.000971465,-0.00941601,-0.0207424,-0.0224901,-0.00431486,0.00568966,-0.00135066,-0.0222563,-0.0592474,-0.0704688,-0.0494659,-0.0160966,0.00749277,0.00496332,-0.00342549,0.00136899,0.00358312,-6.80112e-05,-3.19071e-05,-2.82577e-05,0,0,2.25824e-05,-8.0841e-06,0.0017316,0.00131122,0.00202886,0.00305466,-0.0136347,-0.0356242,-0.0525069,-0.0551043,-0.0318423,-0.00774538,-0.00232473,-0.0141179,-0.0468513,-0.0712168,-0.0672738,-0.0480663,-0.0371214,-0.03629,-0.0327017,-0.0196505,-0.00557353,-0.0012107,7.4034e-06,-5.96125e-05,-0.000201789,0,-1.10997e-05,-1.8574e-05,0.00155798,0.000131635,-0.0020772,-0.00807451,-0.0280459,-0.0559688,-0.0720967,-0.0677333,-0.0438008,-0.0112623,0.0202289,0.02487,-0.0126782,-0.0435622,-0.0598244,-0.0745268,-0.0845844,-0.0784895,-0.0619072,-0.0340463,-0.0083188,-0.000317111,0,0,0,2.39239e-05,-2.34024e-05,-4.59156e-05,0.0016767,-0.00205577,-0.0127511,-0.0226135,-0.0420798,-0.0652319,-0.0808884,-0.0784032,-0.0624083,-0.0107078,0.0596549,0.0916327,0.0590957,0.00701589,-0.0459963,-0.0924245,-0.115877,-0.111736,-0.0861461,-0.0475899,-0.0124602,-0.000387329,1.56956e-05,0,0,3.92823e-05,-9.93023e-05,-0.000123915,0.00124602,-0.00796262,-0.0253391,-0.0462727,-0.0642534,-0.0795629,-0.0913801,-0.099706,-0.0810846,-0.00214909,0.12013,0.186959,0.134144,0.0392562,-0.0485916,-0.107147,-0.139702,-0.130168,-0.105876,-0.0604928,-0.0164048,-0.000358467,2.57251e-05,3.46347e-06,0,-8.61591e-05,5.97449e-06,-0.000225024,0.000262628,-0.0151513,-0.0402336,-0.0658215,-0.0857738,-0.0987427,-0.114265,-0.130386,-0.0974901,0.0315388,0.222005,0.285812,0.184238,0.0401557,-0.066994,-0.129168,-0.143262,-0.136824,-0.116975,-0.0702172,-0.0224736,-0.000557583,-8.00427e-06,1.29041e-05,0,-9.67942e-06,-7.15559e-06,-0.000206159,-0.00246708,-0.0247994,-0.0556888,-0.0793713,-0.0990084,-0.117149,-0.140145,-0.155191,-0.101601,0.101686,0.34268,0.356641,0.189446,0.00876346,-0.101159,-0.144064,-0.140138,-0.134521,-0.117345,-0.0781925,-0.0286631,-0.00113785,-1.51629e-05,1.62101e-05,6.78665e-06,-3.81126e-05,-3.46889e-05,-0.000304466,-0.00673201,-0.0364631,-0.0705129,-0.09837,-0.11668,-0.138748,-0.165868,-0.164042,-0.0685208,0.213562,0.430426,0.381599,0.155783,-0.0323561,-0.131853,-0.145537,-0.132432,-0.131124,-0.113913,-0.0790454,-0.0327096,-0.001951,1.8412e-06,0,0,0,4.40541e-06,9.05543e-06,-0.00921812,-0.0485004,-0.0880072,-0.117133,-0.129864,-0.153104,-0.179991,-0.147624,0.0018249,0.305307,0.471911,0.357523,0.0959883,-0.0755342,-0.14897,-0.144692,-0.134595,-0.125442,-0.103689,-0.0753618,-0.0337441,-0.00269619,3.66796e-06,0,0,0,3.72171e-05,0.000114641,-0.0145354,-0.06154,-0.100384,-0.128645,-0.145533,-0.171172,-0.172358,-0.0918905,0.0948576,0.360659,0.465437,0.289993,0.0318203,-0.109669,-0.151672,-0.14632,-0.1338,-0.113779,-0.0940712,-0.0686075,-0.0302483,-0.00242551,1.46716e-06,0,0,7.08329e-06,5.66408e-05,-0.000295168,-0.0193757,-0.0712378,-0.110411,-0.13996,-0.161902,-0.173222,-0.133367,-0.0158047,0.164062,0.359322,0.393428,0.208774,-0.00957836,-0.127609,-0.149921,-0.14555,-0.127407,-0.102748,-0.0830253,-0.0571451,-0.0213157,-0.000896121,3.92637e-05,-1.87412e-05,0,2.42129e-05,8.48897e-06,-0.000486398,-0.0240576,-0.0772654,-0.116963,-0.148801,-0.166282,-0.151805,-0.0830149,0.0442032,0.189202,0.305285,0.292534,0.140428,-0.0377974,-0.134515,-0.146383,-0.134804,-0.114528,-0.0876113,-0.0675814,-0.0403795,-0.0119486,0.00187258,6.49762e-05,-0.000160095,4.16777e-07,3.98225e-06,9.64652e-07,-0.000582482,-0.0264539,-0.0766146,-0.116881,-0.147196,-0.157488,-0.120607,-0.0451009,0.061174,0.162998,0.219746,0.192218,0.0760476,-0.0579451,-0.128922,-0.129057,-0.115072,-0.0852059,-0.0644815,-0.0475756,-0.0245245,-0.00371832,0.00290462,9.52985e-05,4.81367e-05,2.08387e-06,-0.00028286,-0.000285141,-0.000997199,-0.024654,-0.0719039,-0.10509,-0.127065,-0.131472,-0.0922256,-0.0258262,0.0484555,0.102472,0.133945,0.110281,0.0372107,-0.0505529,-0.0968718,-0.095717,-0.0771368,-0.0554896,-0.0405839,-0.0250418,-0.00744512,0.00310532,0.00321892,5.86174e-05,3.7015e-05,0,-0.000741289,-0.000514124,-0.000769697,-0.018302,-0.0511074,-0.0708248,-0.0913494,-0.0904414,-0.0657547,-0.0288682,0.0112017,0.0395823,0.0574233,0.0581773,0.0183571,-0.0295611,-0.0516148,-0.0454937,-0.0332029,-0.022453,-0.0175861,-0.00487805,0.00470407,0.0065384,0.0027142,3.39305e-05,1.32565e-05,3.81881e-06,1.19338e-06,-5.55994e-05,0.00103555,-0.00267425,-0.0112065,-0.0201304,-0.0344567,-0.0387877,-0.0436903,-0.0482087,-0.0443084,-0.02803,-0.00547248,0.0155045,0.0072293,-0.0100195,-0.019154,-0.0156068,-0.00748671,0.00377355,0.00712849,0.00308454,0.00479397,0.00657989,0.00320136,-0.000185154,-3.37195e-06,3.69949e-06,1.19338e-06,4.87609e-05,0.000746495,0.00811157,0.0127887,0.00692289,0.00113248,-0.0039163,-0.0223052,-0.0549345,-0.0834727,-0.0874402,-0.0615348,-0.0194141,0.00043207,0.00109464,-0.000840166,-0.000711587,0.00103678,0.0102514,0.00936466,0.00193988,0.00135685,0.00158526,0.00145363,-3.84667e-06,-6.22514e-06,0,0,0,4.81879e-06,0.00421647,0.0114179,0.0161676,0.0147202,0.0120776,-0.000161799,-0.0373431,-0.07282,-0.076312,-0.0506398,-0.0127785,0.0148305,0.0188671,0.00818492,0.00121028,0.00575154,0.00775675,0.00366825,0.000734447,-7.9737e-05,-1.13958e-05,2.36117e-05,4.82853e-05,0,0,0,0,5.44981e-07,0.000670987,0.00444933,0.00782219,0.00908297,0.00876078,0.00749707,-0.000429515,-0.0129617,-0.0214672,-0.0143284,-0.00221958,0.00717529,0.00603135,0.00338752,0.00264403,0.00301445,0.00182558,0.00170933,0.000492866,1.46614e-05,-7.90409e-06,2.74485e-05,5.42777e-06,0,0,0,0,0,0,6.92725e-05,0.000185572,0.000476609,0.00106712,0.000613332,0.000157543,-0.000976902,0.00300664,0.00305665,0.00340246,0.00296305,0.000601994,-7.25349e-06,-1.57663e-05,0,0,0,0,0,0,0,0,0,0,0,0,0,0,0,0,0,0,0,4.64045e-05,2.63376e-05,0,0,0.000303832,0.000906742,0.000303832,0,0,0,0,0,0,0,0,0,0,0,0,0,0,0,0,0,0,0,0,0,0,0,0,0,0,0,0,0,0,0,0,0,0,0,0,0,0,0
